{
  "model_type": "slowfast_sanity_path_logistic",
  "feature_type": "hashed_char_trigram",
  "feature_dim": 256,
  "learning_rate": 0.05,
  "weight_decay": 0.0001,
  "epochs": 2,
  "weights": [
    -0.13725315673865301,
    -0.021743559951754952,
    -0.06224576089709176,
    0.02585718507814607,
    0.08315754395649175,
    0.01933053951250408,
    -0.008486120174757413,
    -0.05383750220111631,
    -0.01882555377961441,
    0.13089276840562383,
    -0.010844619024426839,
    -0.0013651769667705315,
    0.0008770995404744325,
    -0.017975431671280972,
    0.1053642163295547,
    -0.006801717213426844,
    -0.06734370327102113,
    -0.11895116690073894,
    0.05152404524810265,
    -0.03407633011241463,
    0.021697677058463545,
    0.03948647170171917,
    0.05974878999759416,
    -0.1341999065541873,
    0.024569300703916823,
    -0.032379831722650736,
    0.025320939915735863,
    0.15306675714842782,
    -0.034162260132888034,
    0.1665251244871847,
    0.01172952206388698,
    -0.02489630718800722,
    0.0,
    -0.0007014641472351434,
    -0.053739035005014965,
    0.01700330560307412,
    0.024321253335490747,
    0.019943949111621704,
    0.0004280080317658345,
    -0.15240777155504204,
    0.4463309552684205,
    0.03187295272420946,
    -0.02009054540570277,
    0.34862624897021477,
    -0.0006260709771872923,
    0.06876536331835297,
    0.041249471188293266,
    -0.12698136023339382,
    0.011277109384913577,
    -0.015817650764284864,
    -0.04800769151850904,
    0.03075955786837254,
    0.0007290385579285336,
    -0.017409571424431367,
    0.03769999226035514,
    0.040053749310584884,
    -0.02460676814041214,
    0.006378924910699333,
    -0.05859519506913005,
    -0.019474477106002534,
    0.054596199905485594,
    -0.05451698866330872,
    -0.0011873138968981677,
    -0.10504820796485992,
    -0.028459538925823816,
    0.06385920119673864,
    -0.03411323981034151,
    -0.05496092886466791,
    0.019012610099820942,
    0.021810355872638822,
    0.02247775888838595,
    0.0029331017225884062,
    0.17874967701950054,
    -0.0399346010736832,
    -0.040880710949836134,
    -0.17549322994483618,
    -0.04719774237649398,
    -0.018898366430123683,
    -0.0345004483963329,
    -0.3449069075419916,
    -0.013048464833276095,
    0.03839598585773349,
    -0.2812236267500136,
    -0.08609248182137651,
    -0.033875187982992494,
    0.013699097166982274,
    0.02238073584417691,
    -0.16370512383459423,
    -0.10455286165441707,
    -0.10982902043642538,
    -0.03646732737492419,
    -0.01844905007623529,
    0.01687881350653557,
    0.0,
    0.09509761653160767,
    -0.06555379525006048,
    -0.053026129087970955,
    -0.0354548525953408,
    0.02207032807290278,
    -0.02093655595357519,
    -0.022908720497742924,
    0.06063995990841689,
    -0.013132339264053782,
    0.03384382083797386,
    -0.07781996371209064,
    0.03875637834952445,
    0.14490375894725468,
    0.018051049895120803,
    -0.05626939970388941,
    -0.0831342215777235,
    0.09718995433535649,
    0.01282644378873903,
    -0.0004647070698766891,
    -0.03719612229749525,
    0.023637177602421497,
    -0.01924351606229592,
    0.037371455089389355,
    -0.03884002343159533,
    -0.13826486629273954,
    -0.025685221088153666,
    -0.09038013944272538,
    -0.05607171319867413,
    0.11945124083896187,
    -0.15069389717322507,
    0.06098516701662167,
    -0.03922922450222466,
    0.07789917850276179,
    0.12179257982843537,
    -0.03972774610110592,
    -0.006836145198851676,
    -0.015899032194307477,
    -0.08443351305019557,
    -0.06307352520083095,
    -0.046182467596132086,
    -0.017431834183947382,
    -0.03539160054173239,
    -0.10529520524553787,
    -0.040236633677785086,
    -0.005100967621061911,
    -0.01636415448610449,
    -0.09041431686877813,
    0.043565118547837456,
    -0.09788379398450361,
    0.10299195260005845,
    0.009070168036921561,
    -0.01891985225598189,
    0.0018814167130440707,
    0.008867694613249282,
    0.023940826629986343,
    0.0025718570156144224,
    -0.03769803943300459,
    -0.03608728483030308,
    -0.12985209462657865,
    0.0,
    -0.09255506842357016,
    -0.006874404073807184,
    0.018823974280637378,
    -0.09492699824199503,
    0.12237560179461113,
    -0.0489825271814602,
    -0.041847572247792314,
    0.00965987704280983,
    -0.08608047141006418,
    -0.0854726264848795,
    -0.17104357868269218,
    0.10692354443915184,
    0.06354570699997315,
    -0.25517937955709663,
    -0.032417250389313014,
    0.08323866158599767,
    0.29361918842155976,
    -0.2077062342924977,
    -0.01767965206257036,
    0.036877794785047976,
    0.26261189586015216,
    -0.04167403815218788,
    0.07583837724214407,
    -0.06517758199706954,
    0.02036590290686133,
    -0.09652328223596929,
    0.0017380491537072784,
    0.17360132787967722,
    -0.07902345887525737,
    -0.02385660403741064,
    -0.015599563960336453,
    0.01992980126555753,
    -0.017495506136578264,
    0.02758143223105185,
    -0.022114235115323372,
    -0.018376040904600353,
    0.1585520568016891,
    0.007206005118424513,
    -0.0038797404735674635,
    0.032192885696667034,
    -0.04513213708063834,
    -0.031984651713805316,
    -0.047953626841429155,
    -0.1251741451675676,
    -0.01981794073871559,
    -0.013166227581245114,
    -0.12438462983683804,
    -0.27110471680956344,
    -0.29074302756372356,
    0.1383542226960635,
    -0.02064974248523484,
    -0.021271275920849646,
    -0.11464207414190562,
    0.43807008123025387,
    -0.021061595983268105,
    -0.039758430909665674,
    -0.05188478848098562,
    -0.04876497524169141,
    -0.36301953526573777,
    0.043718189734563914,
    0.021368501754735002,
    -0.2530086829595444,
    0.08258431888859487,
    0.05269116095566391,
    0.002536176982662602,
    0.000656734640028404,
    0.12265010066303307,
    0.14172662603048805,
    -0.018165757763016783,
    0.0,
    -0.07768023709684027,
    0.02119752252957706,
    0.03645802973393832,
    0.018511035710564182,
    0.029457116732863782,
    0.0464662393887099,
    0.16464819330487868,
    -0.16354604923932528,
    -0.18367822848496518,
    -0.018538958689855833,
    0.024340976330646285,
    -0.06945298570388278,
    0.12204416015163597,
    0.0,
    0.0010357884392769648,
    -0.02213489855664295,
    0.00024352845667405888,
    -0.0023587508788493927,
    0.09548031411636765,
    -0.04168308440703703,
    -0.13990385263978491,
    -0.011630041220587467,
    -0.3392259294518411,
    -0.13682954916609225,
    0.0013393996043971261,
    -0.014243301803287114,
    -0.013165781770844641,
    -0.031372667338857435,
    0.030986552517158962,
    0.0,
    -0.10954683342549659,
    -0.020072066773310596
  ],
  "bias": -0.1675446795199751,
  "train_history": [
    {
      "epoch": 1,
      "avg_loss": 0.693893
    },
    {
      "epoch": 2,
      "avg_loss": 0.682534
    }
  ]
}