{
  "model_type": "slowfast_sanity_path_logistic",
  "feature_type": "hashed_char_trigram",
  "feature_dim": 256,
  "learning_rate": 0.05,
  "weight_decay": 0.0001,
  "epochs": 2,
  "weights": [
    -0.02879021011783695,
    -0.004920041938934933,
    -0.011543372980276913,
    0.004717127580844976,
    0.023849813004919476,
    0.00995119627173335,
    -0.0034141653846973936,
    -0.014190580646940391,
    0.4449676372927564,
    0.03199784121155006,
    0.1464083090962759,
    0.0002959489936239946,
    -0.00011739649818367758,
    -0.003947440378152868,
    0.027369900019211704,
    -2.131382432826018,
    -0.011104935475345346,
    -0.024177137372646013,
    0.016572875806473614,
    -0.007811874174281552,
    0.006422726422469758,
    0.012516101851545954,
    0.014047162060145632,
    -0.032329267651264204,
    0.005782902001321087,
    -0.007341727461972782,
    0.007759828037666805,
    0.04066734481742272,
    0.12120303255673584,
    0.05520829348111385,
    0.0045672618339036375,
    -0.004275754284901253,
    0.0,
    -0.0002206251320079218,
    -0.014483841661064166,
    0.004658176863196667,
    0.005205320544137444,
    0.0043611178408872004,
    0.000633291641187172,
    -0.03828544685491232,
    0.2376279611039254,
    0.010541651105894601,
    -0.002896770939051544,
    0.20690376224702509,
    0.00042425026585142604,
    0.036616048691217866,
    -2.1260265541282903,
    -0.02375821464444091,
    0.0049155204150709226,
    -0.004428032035532196,
    -0.011941971334671253,
    0.010951250264009399,
    0.00023409516652947467,
    -0.0010926672022259166,
    0.010166454781891357,
    0.009095935887624751,
    0.00433438241666029,
    0.0038601422614503774,
    -0.013894366556023552,
    -0.005724076592561419,
    0.012048369702608577,
    -0.011026306242774545,
    -2.1240412613554907,
    -0.01738280819600109,
    -0.007218312303259637,
    0.012997971142820246,
    -0.005547912604467756,
    -0.005158425714581322,
    0.0014391351306672882,
    0.008662105294745035,
    0.005147977716685176,
    0.0012046888678354255,
    0.04665443317635936,
    -0.007580360506901726,
    -0.010532138449278599,
    -0.03768469206353767,
    -0.009616810171060215,
    -0.005377845419764917,
    -0.005141637659055202,
    -0.08141166174148119,
    -0.0020768625212186143,
    0.011391197537823508,
    -0.06419119464506612,
    -0.35165848841364483,
    -0.01241409125942391,
    0.006071028003151341,
    0.006292531892061864,
    -0.03917086620678563,
    -0.025160288266409873,
    -0.024688073654494925,
    -0.008065226867183686,
    -0.004023622195469147,
    0.00644012753459465,
    0.0,
    0.02919000352343058,
    -0.015161785077137965,
    -0.0072779944601604725,
    -0.004295003149110465,
    0.006878438411671845,
    -0.004250747636427525,
    -0.005199013526443437,
    0.01135163121423249,
    -0.002291042753059255,
    0.009261058741072378,
    -0.016713954705374914,
    0.01014981729244316,
    0.03755089700436406,
    0.0053138368056436566,
    -0.01222808865958912,
    -0.019259805950760794,
    0.024080567151990008,
    0.008683584835003932,
    0.0009464704620308187,
    -0.009915827648180713,
    0.008454836169216773,
    -0.00500282313979171,
    0.00920072480717606,
    -0.008173420680674521,
    -0.031385046840865995,
    -0.0052368533831057985,
    -0.022118026339711862,
    -0.01451093133748035,
    0.032875235530354915,
    -0.0325877533039761,
    0.016646425465408593,
    -0.007027489637839318,
    0.020534193145887957,
    0.033747081981682324,
    -0.012091089940606745,
    -1.6805092527050807,
    -0.0055082814778190155,
    -0.01860077784026764,
    -0.017417513627094986,
    -0.005474604490760642,
    -0.003347292744426802,
    -0.009431099975486648,
    -0.026143199657688326,
    -0.00637127632070196,
    0.4492267896372506,
    -0.0030936619274217632,
    -0.020351687907026107,
    0.011892316803006725,
    -0.026713197644450914,
    0.027567467183098437,
    0.4505984876208519,
    -0.003515771590663976,
    -0.0006479692389333216,
    0.0026243878056615593,
    0.11194192153129706,
    0.11191863536738349,
    0.4415404577803941,
    -0.007072546466086708,
    -0.030492199254910906,
    0.0,
    -0.021796499759643782,
    -0.0001284794927400052,
    0.0032797186960313316,
    -0.018685409856133494,
    0.03452454785551401,
    -0.008454563251647732,
    -0.009941785771655342,
    0.0017470077539214533,
    0.42912119107474284,
    -0.015460266527760988,
    -0.03945553820777963,
    0.02334930319463727,
    0.037068436330975556,
    -0.061823909343944064,
    -0.008993156915664798,
    0.020717474092826677,
    0.08967703360170808,
    -0.04561054898830526,
    0.012786753578676646,
    0.009155922728640027,
    0.09310805084447853,
    -0.008698002192933596,
    0.017294614768851305,
    -0.015841915206856794,
    0.004368182289113049,
    -0.021135356426698466,
    -2.1349683165396915,
    0.057347551828282384,
    -0.005148272451837106,
    -0.0009275277365520934,
    -0.004917878182388787,
    0.006152531927237717,
    0.007706750061654059,
    0.006162853226683169,
    -0.00478936196200232,
    -0.0017771319031131545,
    2.614688729413747,
    0.18431588034315605,
    -0.0019205065525497833,
    0.009569288752197333,
    0.10848518697311661,
    -0.0003720592119450098,
    -0.012776367025159038,
    -0.02953826100640889,
    0.0005062805368788828,
    -0.0027137164533216802,
    -0.027873408126784703,
    -0.06581806796393719,
    -2.195550732517193,
    0.03615235686442717,
    -0.004863675136173776,
    -0.005971193496201206,
    -2.1650110153194944,
    0.13481544185967287,
    -0.003116235832104071,
    -0.00905653375685005,
    -0.013524056269967494,
    -0.013780877842317475,
    -0.09092238854366215,
    0.23359757031631873,
    0.00634959065506548,
    -0.055454560913022616,
    0.019794406779658297,
    0.01743224263193863,
    0.0013637454217836132,
    0.0009234556765470486,
    0.03516328128477277,
    0.043764249649335174,
    -0.005036169327798539,
    -0.32920759598994126,
    -0.019138849104770025,
    0.00578268792739267,
    0.013896248742876325,
    0.004871381375979638,
    0.039777128161433147,
    0.022151014875883737,
    0.15626798276015288,
    -0.040678826923379166,
    -0.043001431185861284,
    -0.004014129318866724,
    0.005903281065104923,
    -0.016760698497509146,
    0.03689264282237445,
    0.0,
    0.0027725627916571943,
    2.3567246055875493,
    -0.001089663126263713,
    -0.0005961417682492893,
    0.025129641647982776,
    -0.008457788944728565,
    -0.031429097176228,
    -0.00137553038549623,
    -0.07665301726640915,
    -0.031725804850582226,
    0.002242924909500363,
    -0.0033069497573681105,
    -0.003662254746628984,
    -0.009880969313121525,
    0.011223061870471288,
    0.0,
    -0.025942138143969833,
    -0.005145516138666495
  ],
  "bias": 0.06745326291842463,
  "train_history": [
    {
      "epoch": 1,
      "avg_loss": 0.47321
    },
    {
      "epoch": 2,
      "avg_loss": 0.249817
    }
  ]
}